digraph Tree {
node [shape=box, fontname="helvetica"] ;
edge [fontname="helvetica"] ;
0 [label="x[2] <= 363.875\nentropy = 0.746\nsamples = 5700\nvalue = [4488, 1212]"] ;
1 [label="x[2] <= 209.25\nentropy = 0.019\nsamples = 4434\nvalue = [4426, 8]"] ;
0 -> 1 [labeldistance=2.5, labelangle=45, headlabel="True"] ;
2 [label="x[3] <= 1244.667\nentropy = 0.003\nsamples = 4242\nvalue = [4241, 1]"] ;
1 -> 2 ;
3 [label="entropy = 0.0\nsamples = 4195\nvalue = [4195, 0]"] ;
2 -> 3 ;
4 [label="x[4] <= 0.005\nentropy = 0.149\nsamples = 47\nvalue = [46, 1]"] ;
2 -> 4 ;
5 [label="entropy = 0.0\nsamples = 1\nvalue = [0, 1]"] ;
4 -> 5 ;
6 [label="entropy = 0.0\nsamples = 46\nvalue = [46, 0]"] ;
4 -> 6 ;
7 [label="x[3] <= 469.208\nentropy = 0.226\nsamples = 192\nvalue = [185, 7]"] ;
1 -> 7 ;
8 [label="x[2] <= 355.875\nentropy = 0.048\nsamples = 186\nvalue = [185, 1]"] ;
7 -> 8 ;
9 [label="entropy = 0.0\nsamples = 177\nvalue = [177, 0]"] ;
8 -> 9 ;
10 [label="x[4] <= 0.003\nentropy = 0.503\nsamples = 9\nvalue = [8, 1]"] ;
8 -> 10 ;
11 [label="entropy = 0.0\nsamples = 8\nvalue = [8, 0]"] ;
10 -> 11 ;
12 [label="entropy = 0.0\nsamples = 1\nvalue = [0, 1]"] ;
10 -> 12 ;
13 [label="entropy = 0.0\nsamples = 6\nvalue = [0, 6]"] ;
7 -> 13 ;
14 [label="x[0] <= 22.238\nentropy = 0.282\nsamples = 1266\nvalue = [62, 1204]"] ;
0 -> 14 [labeldistance=2.5, labelangle=-45, headlabel="False"] ;
15 [label="x[3] <= 493.333\nentropy = 0.17\nsamples = 1069\nvalue = [27, 1042]"] ;
14 -> 15 ;
16 [label="x[3] <= 457.0\nentropy = 0.999\nsamples = 27\nvalue = [13, 14]"] ;
15 -> 16 ;
17 [label="x[2] <= 406.167\nentropy = 0.544\nsamples = 8\nvalue = [7, 1]"] ;
16 -> 17 ;
18 [label="entropy = 0.0\nsamples = 1\nvalue = [0, 1]"] ;
17 -> 18 ;
19 [label="entropy = 0.0\nsamples = 7\nvalue = [7, 0]"] ;
17 -> 19 ;
20 [label="x[2] <= 396.833\nentropy = 0.9\nsamples = 19\nvalue = [6, 13]"] ;
16 -> 20 ;
21 [label="entropy = 0.0\nsamples = 2\nvalue = [2, 0]"] ;
20 -> 21 ;
22 [label="entropy = 0.787\nsamples = 17\nvalue = [4, 13]"] ;
20 -> 22 ;
23 [label="x[1] <= 19.404\nentropy = 0.103\nsamples = 1042\nvalue = [14, 1028]"] ;
15 -> 23 ;
24 [label="x[0] <= 21.632\nentropy = 0.709\nsamples = 31\nvalue = [6, 25]"] ;
23 -> 24 ;
25 [label="entropy = 0.994\nsamples = 11\nvalue = [6, 5]"] ;
24 -> 25 ;
26 [label="entropy = 0.0\nsamples = 20\nvalue = [0, 20]"] ;
24 -> 26 ;
27 [label="x[1] <= 26.637\nentropy = 0.067\nsamples = 1011\nvalue = [8, 1003]"] ;
23 -> 27 ;
28 [label="entropy = 0.109\nsamples = 554\nvalue = [8, 546]"] ;
27 -> 28 ;
29 [label="entropy = 0.0\nsamples = 457\nvalue = [0, 457]"] ;
27 -> 29 ;
30 [label="x[1] <= 26.895\nentropy = 0.675\nsamples = 197\nvalue = [35, 162]"] ;
14 -> 30 ;
31 [label="x[3] <= 892.375\nentropy = 0.902\nsamples = 110\nvalue = [35, 75]"] ;
30 -> 31 ;
32 [label="x[3] <= 809.75\nentropy = 0.414\nsamples = 24\nvalue = [22, 2]"] ;
31 -> 32 ;
33 [label="entropy = 0.811\nsamples = 8\nvalue = [6, 2]"] ;
32 -> 33 ;
34 [label="entropy = 0.0\nsamples = 16\nvalue = [16, 0]"] ;
32 -> 34 ;
35 [label="x[0] <= 22.642\nentropy = 0.613\nsamples = 86\nvalue = [13, 73]"] ;
31 -> 35 ;
36 [label="entropy = 0.0\nsamples = 67\nvalue = [0, 67]"] ;
35 -> 36 ;
37 [label="entropy = 0.9\nsamples = 19\nvalue = [13, 6]"] ;
35 -> 37 ;
38 [label="entropy = 0.0\nsamples = 87\nvalue = [0, 87]"] ;
30 -> 38 ;
}
